digraph Tree {
node [shape=box, style="filled, rounded", color="black", fontname=helvetica] ;
edge [fontname=helvetica] ;
0 [label=<Bedeckungsgrad &le; 4.55<br/>gini = 0.466<br/>samples = 16141<br/>value = [5978, 10163]<br/>class = 1>, fillcolor="#399de569"] ;
1 [label=<Bedeckungsgrad &le; 2.75<br/>gini = 0.353<br/>samples = 4984<br/>value = [3842, 1142]<br/>class = 0>, fillcolor="#e58139b3"] ;
0 -> 1 [labeldistance=2.5, labelangle=45, headlabel="True"] ;
2 [label=<Luftdruck &le; 978.165<br/>gini = 0.178<br/>samples = 2687<br/>value = [2421, 266]<br/>class = 0>, fillcolor="#e58139e3"] ;
1 -> 2 ;
3 [label=<Bedeckungsgrad &le; 1.15<br/>gini = 0.364<br/>samples = 580<br/>value = [441, 139]<br/>class = 0>, fillcolor="#e58139af"] ;
2 -> 3 ;
4 [label=<gini = 0.192<br/>samples = 195<br/>value = [174, 21]<br/>class = 0>, fillcolor="#e58139e0"] ;
3 -> 4 ;
5 [label=<gini = 0.425<br/>samples = 385<br/>value = [267, 118]<br/>class = 0>, fillcolor="#e581398e"] ;
3 -> 5 ;
6 [label=<Bedeckungsgrad &le; 1.35<br/>gini = 0.113<br/>samples = 2107<br/>value = [1980, 127]<br/>class = 0>, fillcolor="#e58139ef"] ;
2 -> 6 ;
7 [label=<gini = 0.051<br/>samples = 1210<br/>value = [1178, 32]<br/>class = 0>, fillcolor="#e58139f8"] ;
6 -> 7 ;
8 [label=<gini = 0.189<br/>samples = 897<br/>value = [802, 95]<br/>class = 0>, fillcolor="#e58139e1"] ;
6 -> 8 ;
9 [label=<Luftdruck &le; 979.575<br/>gini = 0.472<br/>samples = 2297<br/>value = [1421, 876]<br/>class = 0>, fillcolor="#e5813962"] ;
1 -> 9 ;
10 [label=<Wind_max &le; 13.15<br/>gini = 0.499<br/>samples = 1054<br/>value = [503, 551]<br/>class = 1>, fillcolor="#399de516"] ;
9 -> 10 ;
11 [label=<gini = 0.499<br/>samples = 927<br/>value = [481, 446]<br/>class = 0>, fillcolor="#e5813913"] ;
10 -> 11 ;
12 [label=<gini = 0.286<br/>samples = 127<br/>value = [22, 105]<br/>class = 1>, fillcolor="#399de5ca"] ;
10 -> 12 ;
13 [label=<Wind_max &le; 11.35<br/>gini = 0.386<br/>samples = 1243<br/>value = [918, 325]<br/>class = 0>, fillcolor="#e58139a5"] ;
9 -> 13 ;
14 [label=<gini = 0.347<br/>samples = 1093<br/>value = [849, 244]<br/>class = 0>, fillcolor="#e58139b6"] ;
13 -> 14 ;
15 [label=<gini = 0.497<br/>samples = 150<br/>value = [69, 81]<br/>class = 1>, fillcolor="#399de526"] ;
13 -> 15 ;
16 [label=<Luftdruck &le; 978.215<br/>gini = 0.31<br/>samples = 11157<br/>value = [2136, 9021]<br/>class = 1>, fillcolor="#399de5c3"] ;
0 -> 16 [labeldistance=2.5, labelangle=-45, headlabel="False"] ;
17 [label=<rel_Feuchte &le; 74.02<br/>gini = 0.19<br/>samples = 6755<br/>value = [718, 6037]<br/>class = 1>, fillcolor="#399de5e1"] ;
16 -> 17 ;
18 [label=<Wind_max &le; 10.05<br/>gini = 0.392<br/>samples = 1157<br/>value = [310, 847]<br/>class = 1>, fillcolor="#399de5a2"] ;
17 -> 18 ;
19 [label=<gini = 0.469<br/>samples = 526<br/>value = [198, 328]<br/>class = 1>, fillcolor="#399de565"] ;
18 -> 19 ;
20 [label=<gini = 0.292<br/>samples = 631<br/>value = [112, 519]<br/>class = 1>, fillcolor="#399de5c8"] ;
18 -> 20 ;
21 [label=<Wind_max &le; 8.25<br/>gini = 0.135<br/>samples = 5598<br/>value = [408, 5190]<br/>class = 1>, fillcolor="#399de5eb"] ;
17 -> 21 ;
22 [label=<gini = 0.278<br/>samples = 1419<br/>value = [237, 1182]<br/>class = 1>, fillcolor="#399de5cc"] ;
21 -> 22 ;
23 [label=<gini = 0.078<br/>samples = 4179<br/>value = [171, 4008]<br/>class = 1>, fillcolor="#399de5f4"] ;
21 -> 23 ;
24 [label=<Bedeckungsgrad &le; 6.35<br/>gini = 0.437<br/>samples = 4402<br/>value = [1418, 2984]<br/>class = 1>, fillcolor="#399de586"] ;
16 -> 24 ;
25 [label=<Wind_max &le; 9.55<br/>gini = 0.497<br/>samples = 2011<br/>value = [926, 1085]<br/>class = 1>, fillcolor="#399de525"] ;
24 -> 25 ;
26 [label=<gini = 0.495<br/>samples = 1283<br/>value = [703, 580]<br/>class = 0>, fillcolor="#e581392d"] ;
25 -> 26 ;
27 [label=<gini = 0.425<br/>samples = 728<br/>value = [223, 505]<br/>class = 1>, fillcolor="#399de58e"] ;
25 -> 27 ;
28 [label=<Wind_max &le; 8.65<br/>gini = 0.327<br/>samples = 2391<br/>value = [492, 1899]<br/>class = 1>, fillcolor="#399de5bd"] ;
24 -> 28 ;
29 [label=<gini = 0.405<br/>samples = 1183<br/>value = [334, 849]<br/>class = 1>, fillcolor="#399de59b"] ;
28 -> 29 ;
30 [label=<gini = 0.227<br/>samples = 1208<br/>value = [158, 1050]<br/>class = 1>, fillcolor="#399de5d9"] ;
28 -> 30 ;
}