digraph Tree {
node [shape=box, style="filled, rounded", color="black", fontname=helvetica] ;
edge [fontname=helvetica] ;
0 [label=<  Bedeckungsgrad &le; 3.65<br/>gini = 0.471<br/>samples = 385<br/>value = [146, 239]<br/>class = 1>, fillcolor="#399de563"] ;
1 [label=<  Wind_mittel &le; 1.95<br/>gini = 0.192<br/>samples = 93<br/>value = [83, 10]<br/>class = 0>, fillcolor="#e58139e0"] ;
0 -> 1 [labeldistance=2.5, labelangle=45, headlabel="True"] ;
2 [label=<gini = 0.0<br/>samples = 18<br/>value = [18, 0]<br/>class = 0>, fillcolor="#e58139ff"] ;
1 -> 2 ;
3 [label=<  Wind_mittel &le; 3.35<br/>gini = 0.231<br/>samples = 75<br/>value = [65, 10]<br/>class = 0>, fillcolor="#e58139d8"] ;
1 -> 3 ;
4 [label=< rel_Feuchte &le; 71.935<br/>gini = 0.314<br/>samples = 41<br/>value = [33, 8]<br/>class = 0>, fillcolor="#e58139c1"] ;
3 -> 4 ;
5 [label=< Luftdruck &le; 980.36<br/>gini = 0.383<br/>samples = 31<br/>value = [23, 8]<br/>class = 0>, fillcolor="#e58139a6"] ;
4 -> 5 ;
6 [label=< Dampfdruck &le; 13.8<br/>gini = 0.492<br/>samples = 16<br/>value = [9, 7]<br/>class = 0>, fillcolor="#e5813939"] ;
5 -> 6 ;
7 [label=<gini = 0.42<br/>samples = 10<br/>value = [7, 3]<br/>class = 0>, fillcolor="#e5813992"] ;
6 -> 7 ;
8 [label=<gini = 0.444<br/>samples = 6<br/>value = [2, 4]<br/>class = 1>, fillcolor="#399de57f"] ;
6 -> 8 ;
9 [label=< Temp_min_2m &le; 7.75<br/>gini = 0.124<br/>samples = 15<br/>value = [14, 1]<br/>class = 0>, fillcolor="#e58139ed"] ;
5 -> 9 ;
10 [label=<gini = 0.278<br/>samples = 6<br/>value = [5, 1]<br/>class = 0>, fillcolor="#e58139cc"] ;
9 -> 10 ;
11 [label=<gini = 0.0<br/>samples = 9<br/>value = [9, 0]<br/>class = 0>, fillcolor="#e58139ff"] ;
9 -> 11 ;
12 [label=<gini = 0.0<br/>samples = 10<br/>value = [10, 0]<br/>class = 0>, fillcolor="#e58139ff"] ;
4 -> 12 ;
13 [label=< Temp_min_2m &le; 4.45<br/>gini = 0.111<br/>samples = 34<br/>value = [32, 2]<br/>class = 0>, fillcolor="#e58139ef"] ;
3 -> 13 ;
14 [label=< Temp_min_5cm &le; -3.65<br/>gini = 0.231<br/>samples = 15<br/>value = [13, 2]<br/>class = 0>, fillcolor="#e58139d8"] ;
13 -> 14 ;
15 [label=<gini = 0.278<br/>samples = 6<br/>value = [5, 1]<br/>class = 0>, fillcolor="#e58139cc"] ;
14 -> 15 ;
16 [label=<gini = 0.198<br/>samples = 9<br/>value = [8, 1]<br/>class = 0>, fillcolor="#e58139df"] ;
14 -> 16 ;
17 [label=<gini = 0.0<br/>samples = 19<br/>value = [19, 0]<br/>class = 0>, fillcolor="#e58139ff"] ;
13 -> 17 ;
18 [label=<  Wind_mittel &le; 1.45<br/>gini = 0.338<br/>samples = 292<br/>value = [63, 229]<br/>class = 1>, fillcolor="#399de5b9"] ;
0 -> 18 [labeldistance=2.5, labelangle=-45, headlabel="False"] ;
19 [label=<gini = 0.415<br/>samples = 17<br/>value = [12, 5]<br/>class = 0>, fillcolor="#e5813995"] ;
18 -> 19 ;
20 [label=< Dampfdruck &le; 9.55<br/>gini = 0.302<br/>samples = 275<br/>value = [51, 224]<br/>class = 1>, fillcolor="#399de5c5"] ;
18 -> 20 ;
21 [label=< Dampfdruck &le; 8.15<br/>gini = 0.218<br/>samples = 153<br/>value = [19, 134]<br/>class = 1>, fillcolor="#399de5db"] ;
20 -> 21 ;
22 [label=<  Wind_max &le; 12.8<br/>gini = 0.264<br/>samples = 115<br/>value = [18, 97]<br/>class = 1>, fillcolor="#399de5d0"] ;
21 -> 22 ;
23 [label=< Temp_min_2m &le; 2.5<br/>gini = 0.332<br/>samples = 81<br/>value = [17, 64]<br/>class = 1>, fillcolor="#399de5bb"] ;
22 -> 23 ;
24 [label=< rel_Feuchte &le; 84.0<br/>gini = 0.268<br/>samples = 69<br/>value = [11, 58]<br/>class = 1>, fillcolor="#399de5cf"] ;
23 -> 24 ;
25 [label=<  Wind_max &le; 10.35<br/>gini = 0.375<br/>samples = 28<br/>value = [7, 21]<br/>class = 1>, fillcolor="#399de5aa"] ;
24 -> 25 ;
26 [label=<  Wind_mittel &le; 3.25<br/>gini = 0.278<br/>samples = 18<br/>value = [3, 15]<br/>class = 1>, fillcolor="#399de5cc"] ;
25 -> 26 ;
27 [label=<gini = 0.397<br/>samples = 11<br/>value = [3, 8]<br/>class = 1>, fillcolor="#399de59f"] ;
26 -> 27 ;
28 [label=<gini = 0.0<br/>samples = 7<br/>value = [0, 7]<br/>class = 1>, fillcolor="#399de5ff"] ;
26 -> 28 ;
29 [label=<gini = 0.48<br/>samples = 10<br/>value = [4, 6]<br/>class = 1>, fillcolor="#399de555"] ;
25 -> 29 ;
30 [label=<Schneehöhe &le; 0.5<br/>gini = 0.176<br/>samples = 41<br/>value = [4, 37]<br/>class = 1>, fillcolor="#399de5e3"] ;
24 -> 30 ;
31 [label=< Dampfdruck &le; 5.5<br/>gini = 0.208<br/>samples = 34<br/>value = [4, 30]<br/>class = 1>, fillcolor="#399de5dd"] ;
30 -> 31 ;
32 [label=<gini = 0.0<br/>samples = 6<br/>value = [0, 6]<br/>class = 1>, fillcolor="#399de5ff"] ;
31 -> 32 ;
33 [label=<  Wind_mittel &le; 2.35<br/>gini = 0.245<br/>samples = 28<br/>value = [4, 24]<br/>class = 1>, fillcolor="#399de5d4"] ;
31 -> 33 ;
34 [label=<gini = 0.5<br/>samples = 6<br/>value = [3, 3]<br/>class = 0>, fillcolor="#e5813900"] ;
33 -> 34 ;
35 [label=< Temp_min_5cm &le; -2.1<br/>gini = 0.087<br/>samples = 22<br/>value = [1, 21]<br/>class = 1>, fillcolor="#399de5f3"] ;
33 -> 35 ;
36 [label=<gini = 0.278<br/>samples = 6<br/>value = [1, 5]<br/>class = 1>, fillcolor="#399de5cc"] ;
35 -> 36 ;
37 [label=<gini = 0.0<br/>samples = 16<br/>value = [0, 16]<br/>class = 1>, fillcolor="#399de5ff"] ;
35 -> 37 ;
38 [label=<gini = 0.0<br/>samples = 7<br/>value = [0, 7]<br/>class = 1>, fillcolor="#399de5ff"] ;
30 -> 38 ;
39 [label=<gini = 0.5<br/>samples = 12<br/>value = [6, 6]<br/>class = 0>, fillcolor="#e5813900"] ;
23 -> 39 ;
40 [label=< rel_Feuchte &le; 90.13<br/>gini = 0.057<br/>samples = 34<br/>value = [1, 33]<br/>class = 1>, fillcolor="#399de5f7"] ;
22 -> 40 ;
41 [label=<gini = 0.0<br/>samples = 28<br/>value = [0, 28]<br/>class = 1>, fillcolor="#399de5ff"] ;
40 -> 41 ;
42 [label=<gini = 0.278<br/>samples = 6<br/>value = [1, 5]<br/>class = 1>, fillcolor="#399de5cc"] ;
40 -> 42 ;
43 [label=<  Wind_max &le; 9.45<br/>gini = 0.051<br/>samples = 38<br/>value = [1, 37]<br/>class = 1>, fillcolor="#399de5f8"] ;
21 -> 43 ;
44 [label=<gini = 0.198<br/>samples = 9<br/>value = [1, 8]<br/>class = 1>, fillcolor="#399de5df"] ;
43 -> 44 ;
45 [label=<gini = 0.0<br/>samples = 29<br/>value = [0, 29]<br/>class = 1>, fillcolor="#399de5ff"] ;
43 -> 45 ;
46 [label=<  Wind_mittel &le; 3.45<br/>gini = 0.387<br/>samples = 122<br/>value = [32, 90]<br/>class = 1>, fillcolor="#399de5a4"] ;
20 -> 46 ;
47 [label=< Temp_min_2m &le; 9.1<br/>gini = 0.46<br/>samples = 78<br/>value = [28, 50]<br/>class = 1>, fillcolor="#399de570"] ;
46 -> 47 ;
48 [label=<  Bedeckungsgrad &le; 6.85<br/>gini = 0.366<br/>samples = 29<br/>value = [7, 22]<br/>class = 1>, fillcolor="#399de5ae"] ;
47 -> 48 ;
49 [label=<  Wind_max &le; 7.05<br/>gini = 0.434<br/>samples = 22<br/>value = [7, 15]<br/>class = 1>, fillcolor="#399de588"] ;
48 -> 49 ;
50 [label=<gini = 0.5<br/>samples = 8<br/>value = [4, 4]<br/>class = 0>, fillcolor="#e5813900"] ;
49 -> 50 ;
51 [label=< Temp_min_5cm &le; 3.85<br/>gini = 0.337<br/>samples = 14<br/>value = [3, 11]<br/>class = 1>, fillcolor="#399de5b9"] ;
49 -> 51 ;
52 [label=<gini = 0.469<br/>samples = 8<br/>value = [3, 5]<br/>class = 1>, fillcolor="#399de566"] ;
51 -> 52 ;
53 [label=<gini = 0.0<br/>samples = 6<br/>value = [0, 6]<br/>class = 1>, fillcolor="#399de5ff"] ;
51 -> 53 ;
54 [label=<gini = 0.0<br/>samples = 7<br/>value = [0, 7]<br/>class = 1>, fillcolor="#399de5ff"] ;
48 -> 54 ;
55 [label=< Luftdruck &le; 977.365<br/>gini = 0.49<br/>samples = 49<br/>value = [21, 28]<br/>class = 1>, fillcolor="#399de540"] ;
47 -> 55 ;
56 [label=<gini = 0.18<br/>samples = 10<br/>value = [1, 9]<br/>class = 1>, fillcolor="#399de5e3"] ;
55 -> 56 ;
57 [label=<  Bedeckungsgrad &le; 6.15<br/>gini = 0.5<br/>samples = 39<br/>value = [20, 19]<br/>class = 0>, fillcolor="#e581390d"] ;
55 -> 57 ;
58 [label=< Temp_min_5cm &le; 11.55<br/>gini = 0.435<br/>samples = 25<br/>value = [17, 8]<br/>class = 0>, fillcolor="#e5813987"] ;
57 -> 58 ;
59 [label=< Temp_mittel &le; 16.35<br/>gini = 0.278<br/>samples = 18<br/>value = [15, 3]<br/>class = 0>, fillcolor="#e58139cc"] ;
58 -> 59 ;
60 [label=<gini = 0.5<br/>samples = 6<br/>value = [3, 3]<br/>class = 0>, fillcolor="#e5813900"] ;
59 -> 60 ;
61 [label=<gini = 0.0<br/>samples = 12<br/>value = [12, 0]<br/>class = 0>, fillcolor="#e58139ff"] ;
59 -> 61 ;
62 [label=<gini = 0.408<br/>samples = 7<br/>value = [2, 5]<br/>class = 1>, fillcolor="#399de599"] ;
58 -> 62 ;
63 [label=< Temp_min_2m &le; 13.05<br/>gini = 0.337<br/>samples = 14<br/>value = [3, 11]<br/>class = 1>, fillcolor="#399de5b9"] ;
57 -> 63 ;
64 [label=<gini = 0.444<br/>samples = 6<br/>value = [2, 4]<br/>class = 1>, fillcolor="#399de57f"] ;
63 -> 64 ;
65 [label=<gini = 0.219<br/>samples = 8<br/>value = [1, 7]<br/>class = 1>, fillcolor="#399de5db"] ;
63 -> 65 ;
66 [label=< Temp_max_2m &le; 13.25<br/>gini = 0.165<br/>samples = 44<br/>value = [4, 40]<br/>class = 1>, fillcolor="#399de5e6"] ;
46 -> 66 ;
67 [label=<gini = 0.0<br/>samples = 15<br/>value = [0, 15]<br/>class = 1>, fillcolor="#399de5ff"] ;
66 -> 67 ;
68 [label=< Temp_min_2m &le; 8.4<br/>gini = 0.238<br/>samples = 29<br/>value = [4, 25]<br/>class = 1>, fillcolor="#399de5d6"] ;
66 -> 68 ;
69 [label=<gini = 0.5<br/>samples = 6<br/>value = [3, 3]<br/>class = 0>, fillcolor="#e5813900"] ;
68 -> 69 ;
70 [label=<  Bedeckungsgrad &le; 5.55<br/>gini = 0.083<br/>samples = 23<br/>value = [1, 22]<br/>class = 1>, fillcolor="#399de5f3"] ;
68 -> 70 ;
71 [label=<gini = 0.278<br/>samples = 6<br/>value = [1, 5]<br/>class = 1>, fillcolor="#399de5cc"] ;
70 -> 71 ;
72 [label=<gini = 0.0<br/>samples = 17<br/>value = [0, 17]<br/>class = 1>, fillcolor="#399de5ff"] ;
70 -> 72 ;
}