digraph Tree {
node [shape=box, style="filled, rounded", color="black", fontname=helvetica] ;
edge [fontname=helvetica] ;
0 [label=<  Bedeckungsgrad &le; 3.65<br/>gini = 0.471<br/>samples = 385<br/>value = [146, 239]<br/>class = 1>, fillcolor="#399de563"] ;
1 [label=<  Wind_max &le; 14.0<br/>gini = 0.192<br/>samples = 93<br/>value = [83, 10]<br/>class = 0>, fillcolor="#e58139e0"] ;
0 -> 1 [labeldistance=2.5, labelangle=45, headlabel="True"] ;
2 [label=< Luftdruck &le; 979.965<br/>gini = 0.13<br/>samples = 86<br/>value = [80, 6]<br/>class = 0>, fillcolor="#e58139ec"] ;
1 -> 2 ;
3 [label=< Luftdruck &le; 979.855<br/>gini = 0.305<br/>samples = 32<br/>value = [26, 6]<br/>class = 0>, fillcolor="#e58139c4"] ;
2 -> 3 ;
4 [label=< Temp_min_5cm &le; -8.3<br/>gini = 0.271<br/>samples = 31<br/>value = [26, 5]<br/>class = 0>, fillcolor="#e58139ce"] ;
3 -> 4 ;
5 [label=<gini = 0.0<br/>samples = 1<br/>value = [0, 1]<br/>class = 1>, fillcolor="#399de5ff"] ;
4 -> 5 ;
6 [label=<  Bedeckungsgrad &le; 1.7<br/>gini = 0.231<br/>samples = 30<br/>value = [26, 4]<br/>class = 0>, fillcolor="#e58139d8"] ;
4 -> 6 ;
7 [label=<gini = 0.0<br/>samples = 12<br/>value = [12, 0]<br/>class = 0>, fillcolor="#e58139ff"] ;
6 -> 7 ;
8 [label=< rel_Feuchte &le; 55.98<br/>gini = 0.346<br/>samples = 18<br/>value = [14, 4]<br/>class = 0>, fillcolor="#e58139b6"] ;
6 -> 8 ;
9 [label=< Temp_min_5cm &le; 9.6<br/>gini = 0.375<br/>samples = 4<br/>value = [1, 3]<br/>class = 1>, fillcolor="#399de5aa"] ;
8 -> 9 ;
10 [label=<gini = 0.0<br/>samples = 3<br/>value = [0, 3]<br/>class = 1>, fillcolor="#399de5ff"] ;
9 -> 10 ;
11 [label=<gini = 0.0<br/>samples = 1<br/>value = [1, 0]<br/>class = 0>, fillcolor="#e58139ff"] ;
9 -> 11 ;
12 [label=<  Wind_max &le; 11.95<br/>gini = 0.133<br/>samples = 14<br/>value = [13, 1]<br/>class = 0>, fillcolor="#e58139eb"] ;
8 -> 12 ;
13 [label=<gini = 0.0<br/>samples = 13<br/>value = [13, 0]<br/>class = 0>, fillcolor="#e58139ff"] ;
12 -> 13 ;
14 [label=<gini = 0.0<br/>samples = 1<br/>value = [0, 1]<br/>class = 1>, fillcolor="#399de5ff"] ;
12 -> 14 ;
15 [label=<gini = 0.0<br/>samples = 1<br/>value = [0, 1]<br/>class = 1>, fillcolor="#399de5ff"] ;
3 -> 15 ;
16 [label=<gini = 0.0<br/>samples = 54<br/>value = [54, 0]<br/>class = 0>, fillcolor="#e58139ff"] ;
2 -> 16 ;
17 [label=<  Wind_mittel &le; 6.85<br/>gini = 0.49<br/>samples = 7<br/>value = [3, 4]<br/>class = 1>, fillcolor="#399de540"] ;
1 -> 17 ;
18 [label=<gini = 0.0<br/>samples = 4<br/>value = [0, 4]<br/>class = 1>, fillcolor="#399de5ff"] ;
17 -> 18 ;
19 [label=<gini = 0.0<br/>samples = 3<br/>value = [3, 0]<br/>class = 0>, fillcolor="#e58139ff"] ;
17 -> 19 ;
20 [label=<  Bedeckungsgrad &le; 6.45<br/>gini = 0.338<br/>samples = 292<br/>value = [63, 229]<br/>class = 1>, fillcolor="#399de5b9"] ;
0 -> 20 [labeldistance=2.5, labelangle=-45, headlabel="False"] ;
21 [label=< Luftdruck &le; 977.36<br/>gini = 0.479<br/>samples = 126<br/>value = [50, 76]<br/>class = 1>, fillcolor="#399de557"] ;
20 -> 21 ;
22 [label=< Dampfdruck &le; 10.35<br/>gini = 0.254<br/>samples = 47<br/>value = [7, 40]<br/>class = 1>, fillcolor="#399de5d2"] ;
21 -> 22 ;
23 [label=<  Wind_max &le; 11.7<br/>gini = 0.465<br/>samples = 19<br/>value = [7, 12]<br/>class = 1>, fillcolor="#399de56a"] ;
22 -> 23 ;
24 [label=< rel_Feuchte &le; 71.355<br/>gini = 0.497<br/>samples = 13<br/>value = [7, 6]<br/>class = 0>, fillcolor="#e5813924"] ;
23 -> 24 ;
25 [label=<gini = 0.0<br/>samples = 4<br/>value = [4, 0]<br/>class = 0>, fillcolor="#e58139ff"] ;
24 -> 25 ;
26 [label=< Temp_min_5cm &le; 0.05<br/>gini = 0.444<br/>samples = 9<br/>value = [3, 6]<br/>class = 1>, fillcolor="#399de57f"] ;
24 -> 26 ;
27 [label=<gini = 0.0<br/>samples = 4<br/>value = [0, 4]<br/>class = 1>, fillcolor="#399de5ff"] ;
26 -> 27 ;
28 [label=< Temp_min_5cm &le; 1.25<br/>gini = 0.48<br/>samples = 5<br/>value = [3, 2]<br/>class = 0>, fillcolor="#e5813955"] ;
26 -> 28 ;
29 [label=<gini = 0.0<br/>samples = 2<br/>value = [2, 0]<br/>class = 0>, fillcolor="#e58139ff"] ;
28 -> 29 ;
30 [label=< Dampfdruck &le; 10.2<br/>gini = 0.444<br/>samples = 3<br/>value = [1, 2]<br/>class = 1>, fillcolor="#399de57f"] ;
28 -> 30 ;
31 [label=<gini = 0.0<br/>samples = 2<br/>value = [0, 2]<br/>class = 1>, fillcolor="#399de5ff"] ;
30 -> 31 ;
32 [label=<gini = 0.0<br/>samples = 1<br/>value = [1, 0]<br/>class = 0>, fillcolor="#e58139ff"] ;
30 -> 32 ;
33 [label=<gini = 0.0<br/>samples = 6<br/>value = [0, 6]<br/>class = 1>, fillcolor="#399de5ff"] ;
23 -> 33 ;
34 [label=<gini = 0.0<br/>samples = 28<br/>value = [0, 28]<br/>class = 1>, fillcolor="#399de5ff"] ;
22 -> 34 ;
35 [label=<  Wind_max &le; 10.9<br/>gini = 0.496<br/>samples = 79<br/>value = [43, 36]<br/>class = 0>, fillcolor="#e581392a"] ;
21 -> 35 ;
36 [label=< Dampfdruck &le; 16.3<br/>gini = 0.455<br/>samples = 60<br/>value = [39, 21]<br/>class = 0>, fillcolor="#e5813976"] ;
35 -> 36 ;
37 [label=< Temp_max_2m &le; 21.0<br/>gini = 0.423<br/>samples = 56<br/>value = [39, 17]<br/>class = 0>, fillcolor="#e5813990"] ;
36 -> 37 ;
38 [label=< Temp_min_2m &le; -2.8<br/>gini = 0.492<br/>samples = 39<br/>value = [22, 17]<br/>class = 0>, fillcolor="#e581393a"] ;
37 -> 38 ;
39 [label=<  Wind_mittel &le; 1.05<br/>gini = 0.32<br/>samples = 5<br/>value = [1, 4]<br/>class = 1>, fillcolor="#399de5bf"] ;
38 -> 39 ;
40 [label=<gini = 0.0<br/>samples = 1<br/>value = [1, 0]<br/>class = 0>, fillcolor="#e58139ff"] ;
39 -> 40 ;
41 [label=<gini = 0.0<br/>samples = 4<br/>value = [0, 4]<br/>class = 1>, fillcolor="#399de5ff"] ;
39 -> 41 ;
42 [label=<  Wind_max &le; 5.85<br/>gini = 0.472<br/>samples = 34<br/>value = [21, 13]<br/>class = 0>, fillcolor="#e5813961"] ;
38 -> 42 ;
43 [label=<gini = 0.0<br/>samples = 5<br/>value = [5, 0]<br/>class = 0>, fillcolor="#e58139ff"] ;
42 -> 43 ;
44 [label=<  Wind_mittel &le; 1.95<br/>gini = 0.495<br/>samples = 29<br/>value = [16, 13]<br/>class = 0>, fillcolor="#e5813930"] ;
42 -> 44 ;
45 [label=<gini = 0.0<br/>samples = 5<br/>value = [0, 5]<br/>class = 1>, fillcolor="#399de5ff"] ;
44 -> 45 ;
46 [label=< Temp_min_2m &le; 0.95<br/>gini = 0.444<br/>samples = 24<br/>value = [16, 8]<br/>class = 0>, fillcolor="#e581397f"] ;
44 -> 46 ;
47 [label=< Temp_min_5cm &le; -3.1<br/>gini = 0.494<br/>samples = 9<br/>value = [4, 5]<br/>class = 1>, fillcolor="#399de533"] ;
46 -> 47 ;
48 [label=< Luftdruck &le; 978.22<br/>gini = 0.32<br/>samples = 5<br/>value = [4, 1]<br/>class = 0>, fillcolor="#e58139bf"] ;
47 -> 48 ;
49 [label=<gini = 0.0<br/>samples = 1<br/>value = [0, 1]<br/>class = 1>, fillcolor="#399de5ff"] ;
48 -> 49 ;
50 [label=<gini = 0.0<br/>samples = 4<br/>value = [4, 0]<br/>class = 0>, fillcolor="#e58139ff"] ;
48 -> 50 ;
51 [label=<gini = 0.0<br/>samples = 4<br/>value = [0, 4]<br/>class = 1>, fillcolor="#399de5ff"] ;
47 -> 51 ;
52 [label=< Temp_mittel &le; 14.8<br/>gini = 0.32<br/>samples = 15<br/>value = [12, 3]<br/>class = 0>, fillcolor="#e58139bf"] ;
46 -> 52 ;
53 [label=< Luftdruck &le; 987.725<br/>gini = 0.153<br/>samples = 12<br/>value = [11, 1]<br/>class = 0>, fillcolor="#e58139e8"] ;
52 -> 53 ;
54 [label=<gini = 0.0<br/>samples = 9<br/>value = [9, 0]<br/>class = 0>, fillcolor="#e58139ff"] ;
53 -> 54 ;
55 [label=<  Bedeckungsgrad &le; 5.0<br/>gini = 0.444<br/>samples = 3<br/>value = [2, 1]<br/>class = 0>, fillcolor="#e581397f"] ;
53 -> 55 ;
56 [label=<gini = 0.0<br/>samples = 2<br/>value = [2, 0]<br/>class = 0>, fillcolor="#e58139ff"] ;
55 -> 56 ;
57 [label=<gini = 0.0<br/>samples = 1<br/>value = [0, 1]<br/>class = 1>, fillcolor="#399de5ff"] ;
55 -> 57 ;
58 [label=< rel_Feuchte &le; 68.94<br/>gini = 0.444<br/>samples = 3<br/>value = [1, 2]<br/>class = 1>, fillcolor="#399de57f"] ;
52 -> 58 ;
59 [label=<gini = 0.0<br/>samples = 1<br/>value = [1, 0]<br/>class = 0>, fillcolor="#e58139ff"] ;
58 -> 59 ;
60 [label=<gini = 0.0<br/>samples = 2<br/>value = [0, 2]<br/>class = 1>, fillcolor="#399de5ff"] ;
58 -> 60 ;
61 [label=<gini = 0.0<br/>samples = 17<br/>value = [17, 0]<br/>class = 0>, fillcolor="#e58139ff"] ;
37 -> 61 ;
62 [label=<gini = 0.0<br/>samples = 4<br/>value = [0, 4]<br/>class = 1>, fillcolor="#399de5ff"] ;
36 -> 62 ;
63 [label=<  Wind_mittel &le; 4.1<br/>gini = 0.332<br/>samples = 19<br/>value = [4, 15]<br/>class = 1>, fillcolor="#399de5bb"] ;
35 -> 63 ;
64 [label=<gini = 0.0<br/>samples = 10<br/>value = [0, 10]<br/>class = 1>, fillcolor="#399de5ff"] ;
63 -> 64 ;
65 [label=< rel_Feuchte &le; 82.085<br/>gini = 0.494<br/>samples = 9<br/>value = [4, 5]<br/>class = 1>, fillcolor="#399de533"] ;
63 -> 65 ;
66 [label=< Temp_min_5cm &le; 6.75<br/>gini = 0.32<br/>samples = 5<br/>value = [4, 1]<br/>class = 0>, fillcolor="#e58139bf"] ;
65 -> 66 ;
67 [label=<gini = 0.0<br/>samples = 4<br/>value = [4, 0]<br/>class = 0>, fillcolor="#e58139ff"] ;
66 -> 67 ;
68 [label=<gini = 0.0<br/>samples = 1<br/>value = [0, 1]<br/>class = 1>, fillcolor="#399de5ff"] ;
66 -> 68 ;
69 [label=<gini = 0.0<br/>samples = 4<br/>value = [0, 4]<br/>class = 1>, fillcolor="#399de5ff"] ;
65 -> 69 ;
70 [label=<  Wind_mittel &le; 1.45<br/>gini = 0.144<br/>samples = 166<br/>value = [13, 153]<br/>class = 1>, fillcolor="#399de5e9"] ;
20 -> 70 ;
71 [label=< rel_Feuchte &le; 94.375<br/>gini = 0.48<br/>samples = 10<br/>value = [6, 4]<br/>class = 0>, fillcolor="#e5813955"] ;
70 -> 71 ;
72 [label=<gini = 0.0<br/>samples = 6<br/>value = [6, 0]<br/>class = 0>, fillcolor="#e58139ff"] ;
71 -> 72 ;
73 [label=<gini = 0.0<br/>samples = 4<br/>value = [0, 4]<br/>class = 1>, fillcolor="#399de5ff"] ;
71 -> 73 ;
74 [label=< Temp_min_5cm &le; 10.35<br/>gini = 0.086<br/>samples = 156<br/>value = [7, 149]<br/>class = 1>, fillcolor="#399de5f3"] ;
70 -> 74 ;
75 [label=<  Wind_max &le; 5.15<br/>gini = 0.054<br/>samples = 145<br/>value = [4, 141]<br/>class = 1>, fillcolor="#399de5f8"] ;
74 -> 75 ;
76 [label=< Temp_min_2m &le; 5.3<br/>gini = 0.32<br/>samples = 5<br/>value = [1, 4]<br/>class = 1>, fillcolor="#399de5bf"] ;
75 -> 76 ;
77 [label=<gini = 0.0<br/>samples = 4<br/>value = [0, 4]<br/>class = 1>, fillcolor="#399de5ff"] ;
76 -> 77 ;
78 [label=<gini = 0.0<br/>samples = 1<br/>value = [1, 0]<br/>class = 0>, fillcolor="#e58139ff"] ;
76 -> 78 ;
79 [label=< Luftdruck &le; 975.795<br/>gini = 0.042<br/>samples = 140<br/>value = [3, 137]<br/>class = 1>, fillcolor="#399de5f9"] ;
75 -> 79 ;
80 [label=<gini = 0.0<br/>samples = 69<br/>value = [0, 69]<br/>class = 1>, fillcolor="#399de5ff"] ;
79 -> 80 ;
81 [label=< Luftdruck &le; 976.155<br/>gini = 0.081<br/>samples = 71<br/>value = [3, 68]<br/>class = 1>, fillcolor="#399de5f4"] ;
79 -> 81 ;
82 [label=<gini = 0.0<br/>samples = 1<br/>value = [1, 0]<br/>class = 0>, fillcolor="#e58139ff"] ;
81 -> 82 ;
83 [label=<  Wind_mittel &le; 7.4<br/>gini = 0.056<br/>samples = 70<br/>value = [2, 68]<br/>class = 1>, fillcolor="#399de5f8"] ;
81 -> 83 ;
84 [label=<  Bedeckungsgrad &le; 6.85<br/>gini = 0.029<br/>samples = 69<br/>value = [1, 68]<br/>class = 1>, fillcolor="#399de5fb"] ;
83 -> 84 ;
85 [label=< Luftdruck &le; 986.405<br/>gini = 0.153<br/>samples = 12<br/>value = [1, 11]<br/>class = 1>, fillcolor="#399de5e8"] ;
84 -> 85 ;
86 [label=<gini = 0.0<br/>samples = 9<br/>value = [0, 9]<br/>class = 1>, fillcolor="#399de5ff"] ;
85 -> 86 ;
87 [label=<  Wind_max &le; 10.0<br/>gini = 0.444<br/>samples = 3<br/>value = [1, 2]<br/>class = 1>, fillcolor="#399de57f"] ;
85 -> 87 ;
88 [label=<gini = 0.0<br/>samples = 2<br/>value = [0, 2]<br/>class = 1>, fillcolor="#399de5ff"] ;
87 -> 88 ;
89 [label=<gini = 0.0<br/>samples = 1<br/>value = [1, 0]<br/>class = 0>, fillcolor="#e58139ff"] ;
87 -> 89 ;
90 [label=<gini = 0.0<br/>samples = 57<br/>value = [0, 57]<br/>class = 1>, fillcolor="#399de5ff"] ;
84 -> 90 ;
91 [label=<gini = 0.0<br/>samples = 1<br/>value = [1, 0]<br/>class = 0>, fillcolor="#e58139ff"] ;
83 -> 91 ;
92 [label=< rel_Feuchte &le; 77.895<br/>gini = 0.397<br/>samples = 11<br/>value = [3, 8]<br/>class = 1>, fillcolor="#399de59f"] ;
74 -> 92 ;
93 [label=< Dampfdruck &le; 16.95<br/>gini = 0.375<br/>samples = 4<br/>value = [3, 1]<br/>class = 0>, fillcolor="#e58139aa"] ;
92 -> 93 ;
94 [label=<gini = 0.0<br/>samples = 3<br/>value = [3, 0]<br/>class = 0>, fillcolor="#e58139ff"] ;
93 -> 94 ;
95 [label=<gini = 0.0<br/>samples = 1<br/>value = [0, 1]<br/>class = 1>, fillcolor="#399de5ff"] ;
93 -> 95 ;
96 [label=<gini = 0.0<br/>samples = 7<br/>value = [0, 7]<br/>class = 1>, fillcolor="#399de5ff"] ;
92 -> 96 ;
}